digraph Tree {
node [shape=box, style="filled", color="black"] ;
0 [label="fun_o <= 6.25\ngini = 0.28\nsamples = 4255\nvalue = [3540, 715]", fillcolor="#e58139cb"] ;
1 [label="gini = 0.129\nsamples = 2142\nvalue = [1994, 148]", fillcolor="#e58139ec"] ;
0 -> 1 [labeldistance=2.5, labelangle=45, headlabel="True"] ;
2 [label="gini = 0.393\nsamples = 2113\nvalue = [1546, 567]", fillcolor="#e58139a1"] ;
0 -> 2 [labeldistance=2.5, labelangle=-45, headlabel="False"] ;
}